<?xml version="1.0"?>
<opencv_storage>
<cascade>
  <stageType>BOOST</stageType>
  <featureType>HAAR</featureType>
  <height>32</height>
  <width>32</width>
  <stageParams>
    <boostType>GAB</boostType>
    <minHitRate>9.9500000476837158e-001</minHitRate>
    <maxFalseAlarm>5.0000000000000000e-001</maxFalseAlarm>
    <weightTrimRate>9.4999999999999996e-001</weightTrimRate>
    <maxDepth>1</maxDepth>
    <maxWeakCount>100</maxWeakCount></stageParams>
  <featureParams>
    <maxCatCount>0</maxCatCount>
    <featSize>1</featSize>
    <mode>ALL</mode></featureParams>
  <stageNum>5</stageNum>
  <stages>
    <!-- stage 0 -->
    <_>
      <maxWeakCount>3</maxWeakCount>
      <stageThreshold>-1.2033950090408325e+000</stageThreshold>
      <weakClassifiers>
        <_>
          <internalNodes>
            0 -1 7 9.0066157281398773e-002</internalNodes>
          <leafValues>
            -9.8931431770324707e-001 9.5172411203384399e-001</leafValues></_>
        <_>
          <internalNodes>
            0 -1 11 6.1448104679584503e-002</internalNodes>
          <leafValues>
            -9.6977996826171875e-001 8.9586305618286133e-001</leafValues></_>
        <_>
          <internalNodes>
            0 -1 9 -7.7499598264694214e-002</internalNodes>
          <leafValues>
            7.5569921731948853e-001 -9.7542971372604370e-001</leafValues></_></weakClassifiers></_>
    <!-- stage 1 -->
    <_>
      <maxWeakCount>3</maxWeakCount>
      <stageThreshold>-1.2250697612762451e+000</stageThreshold>
      <weakClassifiers>
        <_>
          <internalNodes>
            0 -1 13 3.2722830772399902e-002</internalNodes>
          <leafValues>
            -9.4342905282974243e-001 9.3277311325073242e-001</leafValues></_>
        <_>
          <internalNodes>
            0 -1 12 -4.6393372118473053e-002</internalNodes>
          <leafValues>
            6.8997418880462646e-001 -9.7371155023574829e-001</leafValues></_>
        <_>
          <internalNodes>
            0 -1 8 -5.5351827293634415e-002</internalNodes>
          <leafValues>
            6.9207084178924561e-001 -9.6375477313995361e-001</leafValues></_></weakClassifiers></_>
    <!-- stage 2 -->
    <_>
      <maxWeakCount>3</maxWeakCount>
      <stageThreshold>-1.2631086111068726e+000</stageThreshold>
      <weakClassifiers>
        <_>
          <internalNodes>
            0 -1 6 6.5579079091548920e-002</internalNodes>
          <leafValues>
            -9.5751273632049561e-001 7.8661847114562988e-001</leafValues></_>
        <_>
          <internalNodes>
            0 -1 1 7.5739488005638123e-002</internalNodes>
          <leafValues>
            -9.4749963283538818e-001 6.4228719472885132e-001</leafValues></_>
        <_>
          <internalNodes>
            0 -1 4 2.4633017182350159e-001</internalNodes>
          <leafValues>
            -9.4788312911987305e-001 7.3580265045166016e-001</leafValues></_></weakClassifiers></_>
    <!-- stage 3 -->
    <_>
      <maxWeakCount>3</maxWeakCount>
      <stageThreshold>-1.4854741096496582e+000</stageThreshold>
      <weakClassifiers>
        <_>
          <internalNodes>
            0 -1 5 -1.2572258710861206e-001</internalNodes>
          <leafValues>
            2.5958380103111267e-001 -9.9278670549392700e-001</leafValues></_>
        <_>
          <internalNodes>
            0 -1 10 -3.3772442489862442e-002</internalNodes>
          <leafValues>
            7.4385923147201538e-001 -8.8630568981170654e-001</leafValues></_>
        <_>
          <internalNodes>
            0 -1 14 2.7525510638952255e-002</internalNodes>
          <leafValues>
            -8.5875213146209717e-001 6.6911870241165161e-001</leafValues></_></weakClassifiers></_>
    <!-- stage 4 -->
    <_>
      <maxWeakCount>3</maxWeakCount>
      <stageThreshold>-1.2127258777618408e+000</stageThreshold>
      <weakClassifiers>
        <_>
          <internalNodes>
            0 -1 2 -1.5672380104660988e-002</internalNodes>
          <leafValues>
            1. -9.6881175041198730e-001</leafValues></_>
        <_>
          <internalNodes>
            0 -1 3 7.3541659116744995e-001</internalNodes>
          <leafValues>
            -9.5800405740737915e-001 6.8640142679214478e-001</leafValues></_>
        <_>
          <internalNodes>
            0 -1 0 8.2040607929229736e-002</internalNodes>
          <leafValues>
            -9.3031555414199829e-001 7.1677166223526001e-001</leafValues></_></weakClassifiers></_></stages>
  <features>
    <_>
      <rects>
        <_>
          0 6 10 20 -1.</_>
        <_>
          5 6 5 20 2.</_></rects>
      <tilted>0</tilted></_>
    <_>
      <rects>
        <_>
          0 23 32 4 -1.</_>
        <_>
          8 23 16 4 2.</_></rects>
      <tilted>0</tilted></_>
    <_>
      <rects>
        <_>
          1 21 10 10 -1.</_>
        <_>
          1 21 5 5 2.</_>
        <_>
          6 26 5 5 2.</_></rects>
      <tilted>0</tilted></_>
    <_>
      <rects>
        <_>
          2 0 30 30 -1.</_>
        <_>
          12 10 10 10 9.</_></rects>
      <tilted>0</tilted></_>
    <_>
      <rects>
        <_>
          4 0 23 28 -1.</_>
        <_>
          4 7 23 14 2.</_></rects>
      <tilted>0</tilted></_>
    <_>
      <rects>
        <_>
          6 20 22 12 -1.</_>
        <_>
          6 26 22 6 2.</_></rects>
      <tilted>0</tilted></_>
    <_>
      <rects>
        <_>
          7 0 3 32 -1.</_>
        <_>
          7 8 3 16 2.</_></rects>
      <tilted>0</tilted></_>
    <_>
      <rects>
        <_>
          8 0 16 10 -1.</_>
        <_>
          8 5 16 5 2.</_></rects>
      <tilted>0</tilted></_>
    <_>
      <rects>
        <_>
          8 24 17 8 -1.</_>
        <_>
          8 28 17 4 2.</_></rects>
      <tilted>0</tilted></_>
    <_>
      <rects>
        <_>
          9 0 8 9 -1.</_>
        <_>
          9 0 4 9 2.</_></rects>
      <tilted>1</tilted></_>
    <_>
      <rects>
        <_>
          12 1 4 9 -1.</_>
        <_>
          12 1 2 9 2.</_></rects>
      <tilted>1</tilted></_>
    <_>
      <rects>
        <_>
          23 0 3 32 -1.</_>
        <_>
          23 8 3 16 2.</_></rects>
      <tilted>0</tilted></_>
    <_>
      <rects>
        <_>
          24 0 8 6 -1.</_>
        <_>
          24 0 8 3 2.</_></rects>
      <tilted>1</tilted></_>
    <_>
      <rects>
        <_>
          28 17 4 10 -1.</_>
        <_>
          28 17 2 10 2.</_></rects>
      <tilted>1</tilted></_>
    <_>
      <rects>
        <_>
          28 18 4 10 -1.</_>
        <_>
          28 18 2 10 2.</_></rects>
      <tilted>1</tilted></_></features></cascade>
</opencv_storage>
