<?xml version="1.0"?>
<opencv_storage>
<cascade>
  <stageType>BOOST</stageType>
  <featureType>HAAR</featureType>
  <height>8</height>
  <width>8</width>
  <stageParams>
    <boostType>GAB</boostType>
    <minHitRate>9.9500000476837158e-001</minHitRate>
    <maxFalseAlarm>5.0000000000000000e-001</maxFalseAlarm>
    <weightTrimRate>9.4999999999999996e-001</weightTrimRate>
    <maxDepth>1</maxDepth>
    <maxWeakCount>100</maxWeakCount></stageParams>
  <featureParams>
    <maxCatCount>0</maxCatCount>
    <featSize>1</featSize>
    <mode>ALL</mode></featureParams>
  <stageNum>15</stageNum>
  <stages>
    <!-- stage 0 -->
    <_>
      <maxWeakCount>4</maxWeakCount>
      <stageThreshold>-1.9329135417938232e+000</stageThreshold>
      <weakClassifiers>
        <_>
          <internalNodes>
            0 -1 37 -7.0724546909332275e-001</internalNodes>
          <leafValues>
            8.6759579181671143e-001 -8.9652383327484131e-001</leafValues></_>
        <_>
          <internalNodes>
            0 -1 67 1.9094401597976685e-001</internalNodes>
          <leafValues>
            -8.0799800157546997e-001 6.0181963443756104e-001</leafValues></_>
        <_>
          <internalNodes>
            0 -1 115 -7.7211216092109680e-002</internalNodes>
          <leafValues>
            5.4039841890335083e-001 -6.6799676418304443e-001</leafValues></_>
        <_>
          <internalNodes>
            0 -1 35 -1.1476110666990280e-001</internalNodes>
          <leafValues>
            4.3960514664649963e-001 -6.6470319032669067e-001</leafValues></_></weakClassifiers></_>
    <!-- stage 1 -->
    <_>
      <maxWeakCount>6</maxWeakCount>
      <stageThreshold>-1.7530705928802490e+000</stageThreshold>
      <weakClassifiers>
        <_>
          <internalNodes>
            0 -1 37 -9.6334099769592285e-001</internalNodes>
          <leafValues>
            8.6443823575973511e-001 -8.4597247838973999e-001</leafValues></_>
        <_>
          <internalNodes>
            0 -1 54 1.2915593385696411e-001</internalNodes>
          <leafValues>
            -6.4187890291213989e-001 5.8056712150573730e-001</leafValues></_>
        <_>
          <internalNodes>
            0 -1 110 5.8148905634880066e-002</internalNodes>
          <leafValues>
            -6.4899736642837524e-001 4.8152026534080505e-001</leafValues></_>
        <_>
          <internalNodes>
            0 -1 101 4.0994040318764746e-004</internalNodes>
          <leafValues>
            -7.4065339565277100e-001 2.9860779643058777e-001</leafValues></_>
        <_>
          <internalNodes>
            0 -1 97 -3.6198850721120834e-002</internalNodes>
          <leafValues>
            4.5966294407844543e-001 -4.0994614362716675e-001</leafValues></_>
        <_>
          <internalNodes>
            0 -1 74 -1.1287528276443481e-001</internalNodes>
          <leafValues>
            5.9763520956039429e-001 -3.7449258565902710e-001</leafValues></_></weakClassifiers></_>
    <!-- stage 2 -->
    <_>
      <maxWeakCount>9</maxWeakCount>
      <stageThreshold>-1.8956491947174072e+000</stageThreshold>
      <weakClassifiers>
        <_>
          <internalNodes>
            0 -1 37 -1.0109276771545410e+000</internalNodes>
          <leafValues>
            6.9879519939422607e-001 -8.2682925462722778e-001</leafValues></_>
        <_>
          <internalNodes>
            0 -1 67 2.6799622178077698e-001</internalNodes>
          <leafValues>
            -7.0728093385696411e-001 3.7950673699378967e-001</leafValues></_>
        <_>
          <internalNodes>
            0 -1 102 4.3725688010454178e-004</internalNodes>
          <leafValues>
            -7.5529283285140991e-001 2.7772623300552368e-001</leafValues></_>
        <_>
          <internalNodes>
            0 -1 116 3.4216479980386794e-004</internalNodes>
          <leafValues>
            -6.7755436897277832e-001 3.2022404670715332e-001</leafValues></_>
        <_>
          <internalNodes>
            0 -1 96 -5.8418046683073044e-004</internalNodes>
          <leafValues>
            2.4303661286830902e-001 -6.8825203180313110e-001</leafValues></_>
        <_>
          <internalNodes>
            0 -1 15 7.5820124149322510e-001</internalNodes>
          <leafValues>
            1.2732702493667603e-001 -9.9393051862716675e-001</leafValues></_>
        <_>
          <internalNodes>
            0 -1 36 -3.1895836582407355e-004</internalNodes>
          <leafValues>
            3.2217186689376831e-001 -5.1010894775390625e-001</leafValues></_>
        <_>
          <internalNodes>
            0 -1 119 -5.8472417294979095e-002</internalNodes>
          <leafValues>
            5.4857301712036133e-001 -3.0577683448791504e-001</leafValues></_>
        <_>
          <internalNodes>
            0 -1 33 -3.2163828611373901e-001</internalNodes>
          <leafValues>
            6.1805975437164307e-001 -2.9368150234222412e-001</leafValues></_></weakClassifiers></_>
    <!-- stage 3 -->
    <_>
      <maxWeakCount>5</maxWeakCount>
      <stageThreshold>-1.4782006740570068e+000</stageThreshold>
      <weakClassifiers>
        <_>
          <internalNodes>
            0 -1 37 -1.2174082994461060e+000</internalNodes>
          <leafValues>
            6.8732124567031860e-001 -7.5514960289001465e-001</leafValues></_>
        <_>
          <internalNodes>
            0 -1 120 1.6321192379109561e-004</internalNodes>
          <leafValues>
            -8.3994579315185547e-001 3.3444896340370178e-001</leafValues></_>
        <_>
          <internalNodes>
            0 -1 4 -1.2459002435207367e-002</internalNodes>
          <leafValues>
            -7.9766052961349487e-001 2.7014392614364624e-001</leafValues></_>
        <_>
          <internalNodes>
            0 -1 124 -1.8640658527147025e-004</internalNodes>
          <leafValues>
            5.1122838258743286e-001 -5.0627195835113525e-001</leafValues></_>
        <_>
          <internalNodes>
            0 -1 50 -1.2701816856861115e-002</internalNodes>
          <leafValues>
            -7.4430817365646362e-001 3.5302272439002991e-001</leafValues></_></weakClassifiers></_>
    <!-- stage 4 -->
    <_>
      <maxWeakCount>8</maxWeakCount>
      <stageThreshold>-1.6832213401794434e+000</stageThreshold>
      <weakClassifiers>
        <_>
          <internalNodes>
            0 -1 93 -2.4139764904975891e-001</internalNodes>
          <leafValues>
            6.1759084463119507e-001 -7.2515529394149780e-001</leafValues></_>
        <_>
          <internalNodes>
            0 -1 45 1.6095909813884646e-004</internalNodes>
          <leafValues>
            -6.7446058988571167e-001 3.7718355655670166e-001</leafValues></_>
        <_>
          <internalNodes>
            0 -1 109 1.7411181761417538e-004</internalNodes>
          <leafValues>
            -6.4284694194793701e-001 3.6716160178184509e-001</leafValues></_>
        <_>
          <internalNodes>
            0 -1 113 -1.7492740880697966e-004</internalNodes>
          <leafValues>
            2.6604551076889038e-001 -7.1500557661056519e-001</leafValues></_>
        <_>
          <internalNodes>
            0 -1 20 -4.9393186345696449e-003</internalNodes>
          <leafValues>
            -7.2778868675231934e-001 2.4375402927398682e-001</leafValues></_>
        <_>
          <internalNodes>
            0 -1 62 -3.4640511148609221e-004</internalNodes>
          <leafValues>
            3.0704143643379211e-001 -6.0715121030807495e-001</leafValues></_>
        <_>
          <internalNodes>
            0 -1 47 -2.6250749826431274e-002</internalNodes>
          <leafValues>
            -6.8862992525100708e-001 2.8365716338157654e-001</leafValues></_>
        <_>
          <internalNodes>
            0 -1 29 -8.5803726688027382e-003</internalNodes>
          <leafValues>
            -7.5173103809356689e-001 1.9256457686424255e-001</leafValues></_></weakClassifiers></_>
    <!-- stage 5 -->
    <_>
      <maxWeakCount>7</maxWeakCount>
      <stageThreshold>-1.6267166137695312e+000</stageThreshold>
      <weakClassifiers>
        <_>
          <internalNodes>
            0 -1 40 -1.1794703006744385e+000</internalNodes>
          <leafValues>
            5.9719437360763550e-001 -6.9283539056777954e-001</leafValues></_>
        <_>
          <internalNodes>
            0 -1 91 -1.6923674941062927e-001</internalNodes>
          <leafValues>
            3.8942506909370422e-001 -6.4371550083160400e-001</leafValues></_>
        <_>
          <internalNodes>
            0 -1 39 -3.2710313098505139e-004</internalNodes>
          <leafValues>
            3.7322285771369934e-001 -5.4147624969482422e-001</leafValues></_>
        <_>
          <internalNodes>
            0 -1 128 1.6321192379109561e-004</internalNodes>
          <leafValues>
            -4.8085483908653259e-001 4.1666096448898315e-001</leafValues></_>
        <_>
          <internalNodes>
            0 -1 1 -5.4314942099153996e-003</internalNodes>
          <leafValues>
            -7.9253160953521729e-001 2.9307565093040466e-001</leafValues></_>
        <_>
          <internalNodes>
            0 -1 22 -7.6933903619647026e-003</internalNodes>
          <leafValues>
            -7.9862833023071289e-001 1.7524562776088715e-001</leafValues></_>
        <_>
          <internalNodes>
            0 -1 104 1.6664256691001356e-004</internalNodes>
          <leafValues>
            -5.0915390253067017e-001 2.6384413242340088e-001</leafValues></_></weakClassifiers></_>
    <!-- stage 6 -->
    <_>
      <maxWeakCount>10</maxWeakCount>
      <stageThreshold>-1.5005428791046143e+000</stageThreshold>
      <weakClassifiers>
        <_>
          <internalNodes>
            0 -1 37 -1.3303003311157227e+000</internalNodes>
          <leafValues>
            4.9659863114356995e-001 -6.6833782196044922e-001</leafValues></_>
        <_>
          <internalNodes>
            0 -1 130 3.5192357609048486e-004</internalNodes>
          <leafValues>
            -6.0098153352737427e-001 3.6691012978553772e-001</leafValues></_>
        <_>
          <internalNodes>
            0 -1 83 3.1056260922923684e-004</internalNodes>
          <leafValues>
            -5.7713943719863892e-001 3.2326492667198181e-001</leafValues></_>
        <_>
          <internalNodes>
            0 -1 90 2.8372850269079208e-002</internalNodes>
          <leafValues>
            -7.4840325117111206e-001 2.0951157808303833e-001</leafValues></_>
        <_>
          <internalNodes>
            0 -1 51 2.5344990193843842e-002</internalNodes>
          <leafValues>
            3.3172789216041565e-001 -6.8860131502151489e-001</leafValues></_>
        <_>
          <internalNodes>
            0 -1 36 -3.1216046772897243e-004</internalNodes>
          <leafValues>
            3.4431201219558716e-001 -5.1250487565994263e-001</leafValues></_>
        <_>
          <internalNodes>
            0 -1 59 -1.3347895145416260e+000</internalNodes>
          <leafValues>
            5.7917088270187378e-001 -2.7988648414611816e-001</leafValues></_>
        <_>
          <internalNodes>
            0 -1 25 -4.6085529029369354e-003</internalNodes>
          <leafValues>
            -7.2455519437789917e-001 2.5821822881698608e-001</leafValues></_>
        <_>
          <internalNodes>
            0 -1 103 4.3545430526137352e-004</internalNodes>
          <leafValues>
            -5.0167310237884521e-001 2.5001305341720581e-001</leafValues></_>
        <_>
          <internalNodes>
            0 -1 136 4.4542595744132996e-002</internalNodes>
          <leafValues>
            2.0876136422157288e-001 -6.1623108386993408e-001</leafValues></_></weakClassifiers></_>
    <!-- stage 7 -->
    <_>
      <maxWeakCount>12</maxWeakCount>
      <stageThreshold>-1.9681401252746582e+000</stageThreshold>
      <weakClassifiers>
        <_>
          <internalNodes>
            0 -1 87 -1.6256186366081238e-001</internalNodes>
          <leafValues>
            2.6739928126335144e-001 -7.0314574241638184e-001</leafValues></_>
        <_>
          <internalNodes>
            0 -1 124 -3.4759755362756550e-004</internalNodes>
          <leafValues>
            3.2721355557441711e-001 -5.6203287839889526e-001</leafValues></_>
        <_>
          <internalNodes>
            0 -1 39 -1.7411181761417538e-004</internalNodes>
          <leafValues>
            2.8280821442604065e-001 -5.6565415859222412e-001</leafValues></_>
        <_>
          <internalNodes>
            0 -1 11 -1.0383818298578262e-002</internalNodes>
          <leafValues>
            -7.1958667039871216e-001 2.5789776444435120e-001</leafValues></_>
        <_>
          <internalNodes>
            0 -1 95 4.5252006500959396e-002</internalNodes>
          <leafValues>
            -7.0941120386123657e-001 1.7757245898246765e-001</leafValues></_>
        <_>
          <internalNodes>
            0 -1 8 -4.5594569295644760e-002</internalNodes>
          <leafValues>
            -7.9648673534393311e-001 1.6820921003818512e-001</leafValues></_>
        <_>
          <internalNodes>
            0 -1 88 2.0502403378486633e-002</internalNodes>
          <leafValues>
            2.4772618710994720e-001 -6.0258835554122925e-001</leafValues></_>
        <_>
          <internalNodes>
            0 -1 133 -3.2122575212270021e-003</internalNodes>
          <leafValues>
            -7.5654327869415283e-001 1.7123994231224060e-001</leafValues></_>
        <_>
          <internalNodes>
            0 -1 14 -1.2990475893020630e+000</internalNodes>
          <leafValues>
            7.4404251575469971e-001 -2.4087773263454437e-001</leafValues></_>
        <_>
          <internalNodes>
            0 -1 132 -3.3163838088512421e-004</internalNodes>
          <leafValues>
            3.7684398889541626e-001 -3.9469835162162781e-001</leafValues></_>
        <_>
          <internalNodes>
            0 -1 92 -3.5244142054580152e-004</internalNodes>
          <leafValues>
            2.2202350199222565e-001 -6.1440747976303101e-001</leafValues></_>
        <_>
          <internalNodes>
            0 -1 46 -5.3820172324776649e-003</internalNodes>
          <leafValues>
            -8.7162286043167114e-001 1.2855194509029388e-001</leafValues></_></weakClassifiers></_>
    <!-- stage 8 -->
    <_>
      <maxWeakCount>11</maxWeakCount>
      <stageThreshold>-1.5737795829772949e+000</stageThreshold>
      <weakClassifiers>
        <_>
          <internalNodes>
            0 -1 94 -3.3811336755752563e-001</internalNodes>
          <leafValues>
            2.3182861506938934e-001 -6.5874731540679932e-001</leafValues></_>
        <_>
          <internalNodes>
            0 -1 62 -4.2754592141136527e-004</internalNodes>
          <leafValues>
            2.0204347372055054e-001 -8.0910271406173706e-001</leafValues></_>
        <_>
          <internalNodes>
            0 -1 108 -4.6556582674384117e-003</internalNodes>
          <leafValues>
            -8.1984543800354004e-001 1.3755926489830017e-001</leafValues></_>
        <_>
          <internalNodes>
            0 -1 111 3.4879960003308952e-004</internalNodes>
          <leafValues>
            -5.0911659002304077e-001 2.9910331964492798e-001</leafValues></_>
        <_>
          <internalNodes>
            0 -1 43 1.5494981408119202e-001</internalNodes>
          <leafValues>
            -6.1529636383056641e-001 2.8846836090087891e-001</leafValues></_>
        <_>
          <internalNodes>
            0 -1 6 -2.1269015967845917e-002</internalNodes>
          <leafValues>
            -7.8569960594177246e-001 1.7673097550868988e-001</leafValues></_>
        <_>
          <internalNodes>
            0 -1 17 1.8660759553313255e-002</internalNodes>
          <leafValues>
            1.7949673533439636e-001 -5.8645731210708618e-001</leafValues></_>
        <_>
          <internalNodes>
            0 -1 47 1.9954029470682144e-002</internalNodes>
          <leafValues>
            2.0131750404834747e-001 -6.1233377456665039e-001</leafValues></_>
        <_>
          <internalNodes>
            0 -1 41 1.6095909813884646e-004</internalNodes>
          <leafValues>
            -3.6062946915626526e-001 3.7268385291099548e-001</leafValues></_>
        <_>
          <internalNodes>
            0 -1 84 3.4245412098243833e-004</internalNodes>
          <leafValues>
            -2.8754377365112305e-001 4.0067723393440247e-001</leafValues></_>
        <_>
          <internalNodes>
            0 -1 135 -2.1917112171649933e-002</internalNodes>
          <leafValues>
            -5.4009556770324707e-001 2.4927003681659698e-001</leafValues></_></weakClassifiers></_>
    <!-- stage 9 -->
    <_>
      <maxWeakCount>12</maxWeakCount>
      <stageThreshold>-1.5307281017303467e+000</stageThreshold>
      <weakClassifiers>
        <_>
          <internalNodes>
            0 -1 56 -1.2965205907821655e+000</internalNodes>
          <leafValues>
            2.7065026760101318e-001 -6.1594200134277344e-001</leafValues></_>
        <_>
          <internalNodes>
            0 -1 77 -1.8992196419276297e-004</internalNodes>
          <leafValues>
            1.9951111078262329e-001 -8.0998975038528442e-001</leafValues></_>
        <_>
          <internalNodes>
            0 -1 98 -1.4528608322143555e-001</internalNodes>
          <leafValues>
            3.9546900987625122e-001 -3.9005526900291443e-001</leafValues></_>
        <_>
          <internalNodes>
            0 -1 58 -1.8604956858325750e-004</internalNodes>
          <leafValues>
            3.2111105322837830e-001 -5.1277768611907959e-001</leafValues></_>
        <_>
          <internalNodes>
            0 -1 134 -8.2875099033117294e-003</internalNodes>
          <leafValues>
            -6.3904094696044922e-001 1.8996430933475494e-001</leafValues></_>
        <_>
          <internalNodes>
            0 -1 117 -1.6664256691001356e-004</internalNodes>
          <leafValues>
            1.9560612738132477e-001 -6.3918191194534302e-001</leafValues></_>
        <_>
          <internalNodes>
            0 -1 31 -4.6125091612339020e-003</internalNodes>
          <leafValues>
            -7.3067915439605713e-001 1.7922800779342651e-001</leafValues></_>
        <_>
          <internalNodes>
            0 -1 5 -1.4007672667503357e-002</internalNodes>
          <leafValues>
            -5.9262514114379883e-001 1.8829676508903503e-001</leafValues></_>
        <_>
          <internalNodes>
            0 -1 85 -7.7993241138756275e-003</internalNodes>
          <leafValues>
            -6.2245613336563110e-001 1.4709638059139252e-001</leafValues></_>
        <_>
          <internalNodes>
            0 -1 122 1.8835962691809982e-004</internalNodes>
          <leafValues>
            -6.1639082431793213e-001 2.1502944827079773e-001</leafValues></_>
        <_>
          <internalNodes>
            0 -1 65 2.2075958549976349e-002</internalNodes>
          <leafValues>
            2.0724360644817352e-001 -6.4635777473449707e-001</leafValues></_>
        <_>
          <internalNodes>
            0 -1 107 1.6664256691001356e-004</internalNodes>
          <leafValues>
            -3.4301963448524475e-001 3.0789157748222351e-001</leafValues></_></weakClassifiers></_>
    <!-- stage 10 -->
    <_>
      <maxWeakCount>13</maxWeakCount>
      <stageThreshold>-1.5550626516342163e+000</stageThreshold>
      <weakClassifiers>
        <_>
          <internalNodes>
            0 -1 55 -3.9443331956863403e-001</internalNodes>
          <leafValues>
            1.9220998883247375e-001 -5.9360915422439575e-001</leafValues></_>
        <_>
          <internalNodes>
            0 -1 52 -3.4148117993026972e-004</internalNodes>
          <leafValues>
            2.3258242011070251e-001 -5.6001079082489014e-001</leafValues></_>
        <_>
          <internalNodes>
            0 -1 22 -1.0170679539442062e-002</internalNodes>
          <leafValues>
            -8.1897789239883423e-001 1.3756524026393890e-001</leafValues></_>
        <_>
          <internalNodes>
            0 -1 121 -1.7863330140244216e-004</internalNodes>
          <leafValues>
            2.3873887956142426e-001 -5.1550006866455078e-001</leafValues></_>
        <_>
          <internalNodes>
            0 -1 140 -5.3856470622122288e-003</internalNodes>
          <leafValues>
            -7.2050470113754272e-001 1.5703049302101135e-001</leafValues></_>
        <_>
          <internalNodes>
            0 -1 0 -1.8198584439232945e-003</internalNodes>
          <leafValues>
            -7.4097704887390137e-001 1.5217983722686768e-001</leafValues></_>
        <_>
          <internalNodes>
            0 -1 70 -3.4700194373726845e-004</internalNodes>
          <leafValues>
            3.3959954977035522e-001 -3.4761384129524231e-001</leafValues></_>
        <_>
          <internalNodes>
            0 -1 36 -1.6095909813884646e-004</internalNodes>
          <leafValues>
            2.4825820326805115e-001 -4.4327682256698608e-001</leafValues></_>
        <_>
          <internalNodes>
            0 -1 69 7.6251672580838203e-003</internalNodes>
          <leafValues>
            1.3603202998638153e-001 -7.6915901899337769e-001</leafValues></_>
        <_>
          <internalNodes>
            0 -1 114 1.7492740880697966e-004</internalNodes>
          <leafValues>
            -4.7928214073181152e-001 2.2898347675800323e-001</leafValues></_>
        <_>
          <internalNodes>
            0 -1 42 -2.9458464123308659e-003</internalNodes>
          <leafValues>
            -5.8969163894653320e-001 1.6858977079391479e-001</leafValues></_>
        <_>
          <internalNodes>
            0 -1 66 1.1861881613731384e-001</internalNodes>
          <leafValues>
            -1.6884244978427887e-001 7.5006043910980225e-001</leafValues></_>
        <_>
          <internalNodes>
            0 -1 21 1.7481559189036489e-004</internalNodes>
          <leafValues>
            -5.1256930828094482e-001 2.6504138112068176e-001</leafValues></_></weakClassifiers></_>
    <!-- stage 11 -->
    <_>
      <maxWeakCount>16</maxWeakCount>
      <stageThreshold>-1.7356059551239014e+000</stageThreshold>
      <weakClassifiers>
        <_>
          <internalNodes>
            0 -1 138 -3.8637030124664307e-001</internalNodes>
          <leafValues>
            1.5068493783473969e-001 -5.9176814556121826e-001</leafValues></_>
        <_>
          <internalNodes>
            0 -1 130 1.7832181765697896e-004</internalNodes>
          <leafValues>
            -5.3183972835540771e-001 2.4099043011665344e-001</leafValues></_>
        <_>
          <internalNodes>
            0 -1 1 -4.4034607708454132e-003</internalNodes>
          <leafValues>
            -7.3464262485504150e-001 1.5721268951892853e-001</leafValues></_>
        <_>
          <internalNodes>
            0 -1 75 -2.0930577011313289e-004</internalNodes>
          <leafValues>
            1.4898513257503510e-001 -7.7615064382553101e-001</leafValues></_>
        <_>
          <internalNodes>
            0 -1 57 -1.8378019332885742e-002</internalNodes>
          <leafValues>
            -5.9062707424163818e-001 2.2415803372859955e-001</leafValues></_>
        <_>
          <internalNodes>
            0 -1 123 1.7323646170552820e-004</internalNodes>
          <leafValues>
            -4.4442662596702576e-001 2.3555906116962433e-001</leafValues></_>
        <_>
          <internalNodes>
            0 -1 89 -3.1722146272659302e-001</internalNodes>
          <leafValues>
            4.7383946180343628e-001 -2.3964622616767883e-001</leafValues></_>
        <_>
          <internalNodes>
            0 -1 30 -9.3423621729016304e-003</internalNodes>
          <leafValues>
            -6.0919398069381714e-001 1.7771607637405396e-001</leafValues></_>
        <_>
          <internalNodes>
            0 -1 18 -3.6130072548985481e-003</internalNodes>
          <leafValues>
            -7.2830802202224731e-001 1.6280384361743927e-001</leafValues></_>
        <_>
          <internalNodes>
            0 -1 81 -1.5435947105288506e-002</internalNodes>
          <leafValues>
            1.6288422048091888e-001 -5.4776501655578613e-001</leafValues></_>
        <_>
          <internalNodes>
            0 -1 26 -1.0979974642395973e-002</internalNodes>
          <leafValues>
            -5.8914023637771606e-001 1.5928572416305542e-001</leafValues></_>
        <_>
          <internalNodes>
            0 -1 137 -2.7553695254027843e-003</internalNodes>
          <leafValues>
            -6.7949271202087402e-001 1.3735692203044891e-001</leafValues></_>
        <_>
          <internalNodes>
            0 -1 139 -1.2130634859204292e-002</internalNodes>
          <leafValues>
            -5.3420430421829224e-001 1.9075098633766174e-001</leafValues></_>
        <_>
          <internalNodes>
            0 -1 127 1.6947556287050247e-004</internalNodes>
          <leafValues>
            -4.0197157859802246e-001 2.7611500024795532e-001</leafValues></_>
        <_>
          <internalNodes>
            0 -1 16 -7.7249817550182343e-003</internalNodes>
          <leafValues>
            -6.4607971906661987e-001 1.4706230163574219e-001</leafValues></_>
        <_>
          <internalNodes>
            0 -1 38 -1.6321192379109561e-004</internalNodes>
          <leafValues>
            3.0962172150611877e-001 -3.2577067613601685e-001</leafValues></_></weakClassifiers></_>
    <!-- stage 12 -->
    <_>
      <maxWeakCount>19</maxWeakCount>
      <stageThreshold>-1.6786348819732666e+000</stageThreshold>
      <weakClassifiers>
        <_>
          <internalNodes>
            0 -1 63 3.3091346267610788e-004</internalNodes>
          <leafValues>
            -6.9922876358032227e-001 -6.4859628677368164e-002</leafValues></_>
        <_>
          <internalNodes>
            0 -1 23 1.9153108587488532e-004</internalNodes>
          <leafValues>
            -6.6234099864959717e-001 1.3927766680717468e-001</leafValues></_>
        <_>
          <internalNodes>
            0 -1 2 -8.6401803418993950e-003</internalNodes>
          <leafValues>
            -6.9098734855651855e-001 1.9012078642845154e-001</leafValues></_>
        <_>
          <internalNodes>
            0 -1 112 1.7712585395202041e-004</internalNodes>
          <leafValues>
            -5.2914094924926758e-001 2.2861364483833313e-001</leafValues></_>
        <_>
          <internalNodes>
            0 -1 126 -9.7439549863338470e-003</internalNodes>
          <leafValues>
            -5.3755390644073486e-001 2.4880979955196381e-001</leafValues></_>
        <_>
          <internalNodes>
            0 -1 114 1.7492740880697966e-004</internalNodes>
          <leafValues>
            -5.3044247627258301e-001 1.8432621657848358e-001</leafValues></_>
        <_>
          <internalNodes>
            0 -1 19 1.9192519539501518e-004</internalNodes>
          <leafValues>
            -5.0243848562240601e-001 2.0364092290401459e-001</leafValues></_>
        <_>
          <internalNodes>
            0 -1 64 -1.9497822970151901e-002</internalNodes>
          <leafValues>
            -6.1524868011474609e-001 1.4470976591110229e-001</leafValues></_>
        <_>
          <internalNodes>
            0 -1 27 1.3427045196294785e-002</internalNodes>
          <leafValues>
            2.5359714031219482e-001 -4.5846870541572571e-001</leafValues></_>
        <_>
          <internalNodes>
            0 -1 48 1.7232174286618829e-004</internalNodes>
          <leafValues>
            -4.3930655717849731e-001 2.2465111315250397e-001</leafValues></_>
        <_>
          <internalNodes>
            0 -1 132 -3.3163838088512421e-004</internalNodes>
          <leafValues>
            2.6344200968742371e-001 -4.0709635615348816e-001</leafValues></_>
        <_>
          <internalNodes>
            0 -1 28 -1.1681062169373035e-003</internalNodes>
          <leafValues>
            -6.1771613359451294e-001 9.3901269137859344e-002</leafValues></_>
        <_>
          <internalNodes>
            0 -1 129 -9.7777349874377251e-003</internalNodes>
          <leafValues>
            -6.0296297073364258e-001 1.2276380509138107e-001</leafValues></_>
        <_>
          <internalNodes>
            0 -1 76 5.7553704828023911e-002</internalNodes>
          <leafValues>
            -1.4951477944850922e-001 6.0819351673126221e-001</leafValues></_>
        <_>
          <internalNodes>
            0 -1 118 1.7842638771981001e-004</internalNodes>
          <leafValues>
            -2.6350069046020508e-001 3.6360433697700500e-001</leafValues></_>
        <_>
          <internalNodes>
            0 -1 131 1.3435496017336845e-002</internalNodes>
          <leafValues>
            9.2270329594612122e-002 -8.8401681184768677e-001</leafValues></_>
        <_>
          <internalNodes>
            0 -1 105 -1.4125998131930828e-002</internalNodes>
          <leafValues>
            -4.9275410175323486e-001 1.6081900894641876e-001</leafValues></_>
        <_>
          <internalNodes>
            0 -1 10 -8.8417375087738037e-001</internalNodes>
          <leafValues>
            -9.1513735055923462e-001 9.1526232659816742e-002</leafValues></_>
        <_>
          <internalNodes>
            0 -1 78 1.7494050553068519e-004</internalNodes>
          <leafValues>
            -2.4561838805675507e-001 3.3303821086883545e-001</leafValues></_></weakClassifiers></_>
    <!-- stage 13 -->
    <_>
      <maxWeakCount>17</maxWeakCount>
      <stageThreshold>-1.5759713649749756e+000</stageThreshold>
      <weakClassifiers>
        <_>
          <internalNodes>
            0 -1 82 -2.2558784112334251e-003</internalNodes>
          <leafValues>
            -1.2698413431644440e-001 -8.1851178407669067e-001</leafValues></_>
        <_>
          <internalNodes>
            0 -1 34 -3.8035184144973755e-001</internalNodes>
          <leafValues>
            1.5490654110908508e-001 -6.2313085794448853e-001</leafValues></_>
        <_>
          <internalNodes>
            0 -1 13 1.6608374426141381e-004</internalNodes>
          <leafValues>
            -3.8783723115921021e-001 2.9936164617538452e-001</leafValues></_>
        <_>
          <internalNodes>
            0 -1 106 -2.6275981217622757e-003</internalNodes>
          <leafValues>
            -6.5256714820861816e-001 1.8133753538131714e-001</leafValues></_>
        <_>
          <internalNodes>
            0 -1 70 -3.3303193049505353e-004</internalNodes>
          <leafValues>
            3.5113847255706787e-001 -3.1802827119827271e-001</leafValues></_>
        <_>
          <internalNodes>
            0 -1 49 -3.3748194575309753e-002</internalNodes>
          <leafValues>
            2.8611952066421509e-001 -4.2269578576087952e-001</leafValues></_>
        <_>
          <internalNodes>
            0 -1 125 1.6444682842120528e-004</internalNodes>
          <leafValues>
            -3.7956157326698303e-001 2.5433388352394104e-001</leafValues></_>
        <_>
          <internalNodes>
            0 -1 73 1.7483336851000786e-002</internalNodes>
          <leafValues>
            2.1573136746883392e-001 -4.5682740211486816e-001</leafValues></_>
        <_>
          <internalNodes>
            0 -1 32 -3.4987586736679077e-001</internalNodes>
          <leafValues>
            8.5237532854080200e-001 -1.7331662774085999e-001</leafValues></_>
        <_>
          <internalNodes>
            0 -1 12 -1.4810238033533096e-002</internalNodes>
          <leafValues>
            -4.0306475758552551e-001 3.1171834468841553e-001</leafValues></_>
        <_>
          <internalNodes>
            0 -1 68 -1.6474889218807220e-001</internalNodes>
          <leafValues>
            2.2993160784244537e-001 -4.5064339041709900e-001</leafValues></_>
        <_>
          <internalNodes>
            0 -1 7 -5.4314192384481430e-003</internalNodes>
          <leafValues>
            -6.4885812997817993e-001 1.5968778729438782e-001</leafValues></_>
        <_>
          <internalNodes>
            0 -1 80 -1.8748569709714502e-004</internalNodes>
          <leafValues>
            1.5035150945186615e-001 -6.4430409669876099e-001</leafValues></_>
        <_>
          <internalNodes>
            0 -1 66 1.5600833296775818e-001</internalNodes>
          <leafValues>
            -1.2330687791109085e-001 8.7630772590637207e-001</leafValues></_>
        <_>
          <internalNodes>
            0 -1 45 3.3698446350172162e-004</internalNodes>
          <leafValues>
            -4.4144207239151001e-001 2.3349650204181671e-001</leafValues></_>
        <_>
          <internalNodes>
            0 -1 24 -3.7724934518337250e-003</internalNodes>
          <leafValues>
            -8.8299787044525146e-001 1.1004697531461716e-001</leafValues></_>
        <_>
          <internalNodes>
            0 -1 72 -1.6095384955406189e-002</internalNodes>
          <leafValues>
            -4.5894399285316467e-001 2.1033890545368195e-001</leafValues></_></weakClassifiers></_>
    <!-- stage 14 -->
    <_>
      <maxWeakCount>16</maxWeakCount>
      <stageThreshold>-1.7100352048873901e+000</stageThreshold>
      <weakClassifiers>
        <_>
          <internalNodes>
            0 -1 100 1.6774289542809129e-004</internalNodes>
          <leafValues>
            -5.8084321022033691e-001 1.6709075868129730e-001</leafValues></_>
        <_>
          <internalNodes>
            0 -1 111 3.3929472556337714e-004</internalNodes>
          <leafValues>
            -5.7783693075180054e-001 1.7442780733108521e-001</leafValues></_>
        <_>
          <internalNodes>
            0 -1 79 -4.1371002793312073e-002</internalNodes>
          <leafValues>
            1.9472536444664001e-001 -5.7640320062637329e-001</leafValues></_>
        <_>
          <internalNodes>
            0 -1 127 -6.2920637428760529e-003</internalNodes>
          <leafValues>
            -8.0933982133865356e-001 1.9608896970748901e-001</leafValues></_>
        <_>
          <internalNodes>
            0 -1 83 1.7760417540557683e-004</internalNodes>
          <leafValues>
            -5.1477885246276855e-001 2.5652554631233215e-001</leafValues></_>
        <_>
          <internalNodes>
            0 -1 53 5.3890226408839226e-003</internalNodes>
          <leafValues>
            1.8832558393478394e-001 -5.6674236059188843e-001</leafValues></_>
        <_>
          <internalNodes>
            0 -1 3 1.6608374426141381e-004</internalNodes>
          <leafValues>
            -4.1519460082054138e-001 3.1202831864356995e-001</leafValues></_>
        <_>
          <internalNodes>
            0 -1 9 -1.6244716942310333e-002</internalNodes>
          <leafValues>
            -5.8695811033248901e-001 1.8178829550743103e-001</leafValues></_>
        <_>
          <internalNodes>
            0 -1 44 -7.7048647217452526e-003</internalNodes>
          <leafValues>
            -8.6915802955627441e-001 4.2514521628618240e-002</leafValues></_>
        <_>
          <internalNodes>
            0 -1 132 -1.6946952382568270e-004</internalNodes>
          <leafValues>
            2.7985927462577820e-001 -3.5898482799530029e-001</leafValues></_>
        <_>
          <internalNodes>
            0 -1 61 1.8917031411547214e-004</internalNodes>
          <leafValues>
            -2.1598035097122192e-001 5.0779134035110474e-001</leafValues></_>
        <_>
          <internalNodes>
            0 -1 61 -1.7994616064243019e-004</internalNodes>
          <leafValues>
            3.0975291132926941e-001 -3.2575199007987976e-001</leafValues></_>
        <_>
          <internalNodes>
            0 -1 71 -2.8592818975448608e-001</internalNodes>
          <leafValues>
            5.1002120971679688e-001 -2.1894846856594086e-001</leafValues></_>
        <_>
          <internalNodes>
            0 -1 99 -2.0034078042954206e-003</internalNodes>
          <leafValues>
            3.4471684694290161e-001 -2.8041943907737732e-001</leafValues></_>
        <_>
          <internalNodes>
            0 -1 86 -1.7711892724037170e-002</internalNodes>
          <leafValues>
            -5.7708078622817993e-001 1.3590082526206970e-001</leafValues></_>
        <_>
          <internalNodes>
            0 -1 60 -1.9186144345439970e-004</internalNodes>
          <leafValues>
            1.2844288349151611e-001 -6.6867434978485107e-001</leafValues></_></weakClassifiers></_></stages>
  <features>
    <_>
      <rects>
        <_>
          0 0 2 1 -1.</_>
        <_>
          1 0 1 1 2.</_></rects>
      <tilted>0</tilted></_>
    <_>
      <rects>
        <_>
          0 0 3 3 -1.</_>
        <_>
          1 1 1 1 9.</_></rects>
      <tilted>0</tilted></_>
    <_>
      <rects>
        <_>
          0 0 1 6 -1.</_>
        <_>
          0 2 1 2 3.</_></rects>
      <tilted>0</tilted></_>
    <_>
      <rects>
        <_>
          0 0 4 2 -1.</_>
        <_>
          1 0 2 2 2.</_></rects>
      <tilted>0</tilted></_>
    <_>
      <rects>
        <_>
          0 0 1 8 -1.</_>
        <_>
          0 2 1 4 2.</_></rects>
      <tilted>0</tilted></_>
    <_>
      <rects>
        <_>
          0 0 1 6 -1.</_>
        <_>
          0 3 1 3 2.</_></rects>
      <tilted>0</tilted></_>
    <_>
      <rects>
        <_>
          0 0 6 1 -1.</_>
        <_>
          2 0 2 1 3.</_></rects>
      <tilted>0</tilted></_>
    <_>
      <rects>
        <_>
          0 0 2 3 -1.</_>
        <_>
          0 1 2 1 3.</_></rects>
      <tilted>0</tilted></_>
    <_>
      <rects>
        <_>
          0 0 8 1 -1.</_>
        <_>
          2 0 4 1 2.</_></rects>
      <tilted>0</tilted></_>
    <_>
      <rects>
        <_>
          0 0 6 1 -1.</_>
        <_>
          3 0 3 1 2.</_></rects>
      <tilted>0</tilted></_>
    <_>
      <rects>
        <_>
          0 0 7 8 -1.</_>
        <_>
          0 4 7 4 2.</_></rects>
      <tilted>0</tilted></_>
    <_>
      <rects>
        <_>
          0 1 3 3 -1.</_>
        <_>
          1 2 1 1 9.</_></rects>
      <tilted>0</tilted></_>
    <_>
      <rects>
        <_>
          0 1 3 6 -1.</_>
        <_>
          1 3 1 2 9.</_></rects>
      <tilted>0</tilted></_>
    <_>
      <rects>
        <_>
          0 1 2 3 -1.</_>
        <_>
          0 2 2 1 3.</_></rects>
      <tilted>0</tilted></_>
    <_>
      <rects>
        <_>
          0 1 6 6 -1.</_>
        <_>
          2 3 2 2 9.</_></rects>
      <tilted>0</tilted></_>
    <_>
      <rects>
        <_>
          0 1 8 7 -1.</_>
        <_>
          4 1 4 7 2.</_></rects>
      <tilted>0</tilted></_>
    <_>
      <rects>
        <_>
          0 2 1 4 -1.</_>
        <_>
          0 3 1 2 2.</_></rects>
      <tilted>0</tilted></_>
    <_>
      <rects>
        <_>
          0 2 1 6 -1.</_>
        <_>
          0 5 1 3 2.</_></rects>
      <tilted>0</tilted></_>
    <_>
      <rects>
        <_>
          0 4 1 3 -1.</_>
        <_>
          0 5 1 1 3.</_></rects>
      <tilted>0</tilted></_>
    <_>
      <rects>
        <_>
          0 4 3 3 -1.</_>
        <_>
          1 5 1 1 9.</_></rects>
      <tilted>0</tilted></_>
    <_>
      <rects>
        <_>
          0 5 3 3 -1.</_>
        <_>
          1 6 1 1 9.</_></rects>
      <tilted>0</tilted></_>
    <_>
      <rects>
        <_>
          0 5 3 2 -1.</_>
        <_>
          1 5 1 2 3.</_></rects>
      <tilted>0</tilted></_>
    <_>
      <rects>
        <_>
          0 5 2 3 -1.</_>
        <_>
          0 6 2 1 3.</_></rects>
      <tilted>0</tilted></_>
    <_>
      <rects>
        <_>
          0 5 4 2 -1.</_>
        <_>
          0 6 4 1 2.</_></rects>
      <tilted>0</tilted></_>
    <_>
      <rects>
        <_>
          0 6 3 1 -1.</_>
        <_>
          1 6 1 1 3.</_></rects>
      <tilted>0</tilted></_>
    <_>
      <rects>
        <_>
          0 6 3 2 -1.</_>
        <_>
          1 6 1 2 3.</_></rects>
      <tilted>0</tilted></_>
    <_>
      <rects>
        <_>
          0 7 6 1 -1.</_>
        <_>
          2 7 2 1 3.</_></rects>
      <tilted>0</tilted></_>
    <_>
      <rects>
        <_>
          0 7 8 1 -1.</_>
        <_>
          4 7 4 1 2.</_></rects>
      <tilted>0</tilted></_>
    <_>
      <rects>
        <_>
          1 0 3 1 -1.</_>
        <_>
          2 0 1 1 3.</_></rects>
      <tilted>0</tilted></_>
    <_>
      <rects>
        <_>
          1 0 3 3 -1.</_>
        <_>
          2 1 1 1 9.</_></rects>
      <tilted>0</tilted></_>
    <_>
      <rects>
        <_>
          1 0 6 1 -1.</_>
        <_>
          3 0 2 1 3.</_></rects>
      <tilted>0</tilted></_>
    <_>
      <rects>
        <_>
          1 0 2 3 -1.</_>
        <_>
          1 1 2 1 3.</_></rects>
      <tilted>0</tilted></_>
    <_>
      <rects>
        <_>
          1 0 6 1 -1.</_>
        <_>
          3 2 2 1 3.</_></rects>
      <tilted>1</tilted></_>
    <_>
      <rects>
        <_>
          1 0 6 6 -1.</_>
        <_>
          1 2 6 2 3.</_></rects>
      <tilted>0</tilted></_>
    <_>
      <rects>
        <_>
          1 0 6 8 -1.</_>
        <_>
          1 2 6 4 2.</_></rects>
      <tilted>0</tilted></_>
    <_>
      <rects>
        <_>
          1 0 7 8 -1.</_>
        <_>
          1 2 7 4 2.</_></rects>
      <tilted>0</tilted></_>
    <_>
      <rects>
        <_>
          1 1 2 2 -1.</_>
        <_>
          1 1 1 1 2.</_>
        <_>
          2 2 1 1 2.</_></rects>
      <tilted>0</tilted></_>
    <_>
      <rects>
        <_>
          1 1 6 6 -1.</_>
        <_>
          3 3 2 2 9.</_></rects>
      <tilted>0</tilted></_>
    <_>
      <rects>
        <_>
          1 2 1 2 -1.</_>
        <_>
          1 3 1 1 2.</_></rects>
      <tilted>0</tilted></_>
    <_>
      <rects>
        <_>
          1 2 2 2 -1.</_>
        <_>
          1 2 1 1 2.</_>
        <_>
          2 3 1 1 2.</_></rects>
      <tilted>0</tilted></_>
    <_>
      <rects>
        <_>
          1 2 6 6 -1.</_>
        <_>
          3 4 2 2 9.</_></rects>
      <tilted>0</tilted></_>
    <_>
      <rects>
        <_>
          1 4 1 4 -1.</_>
        <_>
          1 5 1 2 2.</_></rects>
      <tilted>0</tilted></_>
    <_>
      <rects>
        <_>
          1 4 2 1 -1.</_>
        <_>
          1 4 1 1 2.</_></rects>
      <tilted>1</tilted></_>
    <_>
      <rects>
        <_>
          1 4 6 4 -1.</_>
        <_>
          1 6 6 2 2.</_></rects>
      <tilted>0</tilted></_>
    <_>
      <rects>
        <_>
          1 5 1 3 -1.</_>
        <_>
          1 6 1 1 3.</_></rects>
      <tilted>0</tilted></_>
    <_>
      <rects>
        <_>
          1 5 2 2 -1.</_>
        <_>
          1 5 1 1 2.</_>
        <_>
          2 6 1 1 2.</_></rects>
      <tilted>0</tilted></_>
    <_>
      <rects>
        <_>
          1 7 3 1 -1.</_>
        <_>
          2 7 1 1 3.</_></rects>
      <tilted>0</tilted></_>
    <_>
      <rects>
        <_>
          1 7 6 1 -1.</_>
        <_>
          4 7 3 1 2.</_></rects>
      <tilted>0</tilted></_>
    <_>
      <rects>
        <_>
          2 0 1 3 -1.</_>
        <_>
          2 1 1 1 3.</_></rects>
      <tilted>0</tilted></_>
    <_>
      <rects>
        <_>
          2 0 3 8 -1.</_>
        <_>
          3 0 1 8 3.</_></rects>
      <tilted>0</tilted></_>
    <_>
      <rects>
        <_>
          2 0 6 1 -1.</_>
        <_>
          4 0 2 1 3.</_></rects>
      <tilted>0</tilted></_>
    <_>
      <rects>
        <_>
          2 0 6 1 -1.</_>
        <_>
          5 0 3 1 2.</_></rects>
      <tilted>0</tilted></_>
    <_>
      <rects>
        <_>
          2 1 2 2 -1.</_>
        <_>
          2 1 1 1 2.</_>
        <_>
          3 2 1 1 2.</_></rects>
      <tilted>0</tilted></_>
    <_>
      <rects>
        <_>
          2 1 1 2 -1.</_>
        <_>
          2 1 1 1 2.</_></rects>
      <tilted>1</tilted></_>
    <_>
      <rects>
        <_>
          2 1 4 1 -1.</_>
        <_>
          2 1 2 1 2.</_></rects>
      <tilted>1</tilted></_>
    <_>
      <rects>
        <_>
          2 1 6 1 -1.</_>
        <_>
          4 3 2 1 3.</_></rects>
      <tilted>1</tilted></_>
    <_>
      <rects>
        <_>
          2 1 6 6 -1.</_>
        <_>
          4 3 2 2 9.</_></rects>
      <tilted>0</tilted></_>
    <_>
      <rects>
        <_>
          2 1 6 1 -1.</_>
        <_>
          5 1 3 1 2.</_></rects>
      <tilted>0</tilted></_>
    <_>
      <rects>
        <_>
          2 2 2 1 -1.</_>
        <_>
          3 2 1 1 2.</_></rects>
      <tilted>0</tilted></_>
    <_>
      <rects>
        <_>
          2 2 6 6 -1.</_>
        <_>
          4 4 2 2 9.</_></rects>
      <tilted>0</tilted></_>
    <_>
      <rects>
        <_>
          2 3 2 1 -1.</_>
        <_>
          3 3 1 1 2.</_></rects>
      <tilted>0</tilted></_>
    <_>
      <rects>
        <_>
          2 3 2 2 -1.</_>
        <_>
          2 3 1 1 2.</_>
        <_>
          3 4 1 1 2.</_></rects>
      <tilted>0</tilted></_>
    <_>
      <rects>
        <_>
          2 5 2 1 -1.</_>
        <_>
          3 5 1 1 2.</_></rects>
      <tilted>0</tilted></_>
    <_>
      <rects>
        <_>
          2 6 2 2 -1.</_>
        <_>
          2 6 1 1 2.</_>
        <_>
          3 7 1 1 2.</_></rects>
      <tilted>0</tilted></_>
    <_>
      <rects>
        <_>
          2 7 4 1 -1.</_>
        <_>
          4 7 2 1 2.</_></rects>
      <tilted>0</tilted></_>
    <_>
      <rects>
        <_>
          2 7 6 1 -1.</_>
        <_>
          5 7 3 1 2.</_></rects>
      <tilted>0</tilted></_>
    <_>
      <rects>
        <_>
          3 0 4 2 -1.</_>
        <_>
          4 1 2 2 2.</_></rects>
      <tilted>1</tilted></_>
    <_>
      <rects>
        <_>
          3 0 4 3 -1.</_>
        <_>
          3 0 2 3 2.</_></rects>
      <tilted>1</tilted></_>
    <_>
      <rects>
        <_>
          3 0 5 3 -1.</_>
        <_>
          2 1 5 1 3.</_></rects>
      <tilted>1</tilted></_>
    <_>
      <rects>
        <_>
          3 1 3 1 -1.</_>
        <_>
          4 1 1 1 3.</_></rects>
      <tilted>0</tilted></_>
    <_>
      <rects>
        <_>
          3 1 2 2 -1.</_>
        <_>
          3 1 1 1 2.</_>
        <_>
          4 2 1 1 2.</_></rects>
      <tilted>0</tilted></_>
    <_>
      <rects>
        <_>
          3 1 4 2 -1.</_>
        <_>
          4 2 2 2 2.</_></rects>
      <tilted>1</tilted></_>
    <_>
      <rects>
        <_>
          3 1 2 6 -1.</_>
        <_>
          3 1 1 3 2.</_>
        <_>
          4 4 1 3 2.</_></rects>
      <tilted>0</tilted></_>
    <_>
      <rects>
        <_>
          3 1 4 1 -1.</_>
        <_>
          5 1 2 1 2.</_></rects>
      <tilted>0</tilted></_>
    <_>
      <rects>
        <_>
          3 1 4 3 -1.</_>
        <_>
          2 2 4 1 3.</_></rects>
      <tilted>1</tilted></_>
    <_>
      <rects>
        <_>
          3 2 1 2 -1.</_>
        <_>
          3 3 1 1 2.</_></rects>
      <tilted>0</tilted></_>
    <_>
      <rects>
        <_>
          3 2 3 4 -1.</_>
        <_>
          3 4 3 2 2.</_></rects>
      <tilted>0</tilted></_>
    <_>
      <rects>
        <_>
          3 3 1 3 -1.</_>
        <_>
          3 4 1 1 3.</_></rects>
      <tilted>0</tilted></_>
    <_>
      <rects>
        <_>
          3 3 2 2 -1.</_>
        <_>
          3 3 1 1 2.</_>
        <_>
          4 4 1 1 2.</_></rects>
      <tilted>0</tilted></_>
    <_>
      <rects>
        <_>
          3 3 4 3 -1.</_>
        <_>
          3 4 4 1 3.</_></rects>
      <tilted>0</tilted></_>
    <_>
      <rects>
        <_>
          3 4 3 1 -1.</_>
        <_>
          4 4 1 1 3.</_></rects>
      <tilted>0</tilted></_>
    <_>
      <rects>
        <_>
          3 4 3 4 -1.</_>
        <_>
          4 4 1 4 3.</_></rects>
      <tilted>0</tilted></_>
    <_>
      <rects>
        <_>
          3 5 3 1 -1.</_>
        <_>
          4 5 1 1 3.</_></rects>
      <tilted>0</tilted></_>
    <_>
      <rects>
        <_>
          3 6 1 2 -1.</_>
        <_>
          3 7 1 1 2.</_></rects>
      <tilted>0</tilted></_>
    <_>
      <rects>
        <_>
          3 6 2 2 -1.</_>
        <_>
          3 6 1 1 2.</_>
        <_>
          4 7 1 1 2.</_></rects>
      <tilted>0</tilted></_>
    <_>
      <rects>
        <_>
          3 7 2 1 -1.</_>
        <_>
          4 7 1 1 2.</_></rects>
      <tilted>0</tilted></_>
    <_>
      <rects>
        <_>
          3 7 4 1 -1.</_>
        <_>
          5 7 2 1 2.</_></rects>
      <tilted>0</tilted></_>
    <_>
      <rects>
        <_>
          4 0 1 8 -1.</_>
        <_>
          4 2 1 4 2.</_></rects>
      <tilted>0</tilted></_>
    <_>
      <rects>
        <_>
          4 0 1 4 -1.</_>
        <_>
          4 0 1 2 2.</_></rects>
      <tilted>1</tilted></_>
    <_>
      <rects>
        <_>
          4 0 4 3 -1.</_>
        <_>
          5 1 2 3 2.</_></rects>
      <tilted>1</tilted></_>
    <_>
      <rects>
        <_>
          4 0 4 7 -1.</_>
        <_>
          6 0 2 7 2.</_></rects>
      <tilted>0</tilted></_>
    <_>
      <rects>
        <_>
          4 0 4 3 -1.</_>
        <_>
          3 1 4 1 3.</_></rects>
      <tilted>1</tilted></_>
    <_>
      <rects>
        <_>
          4 1 1 2 -1.</_>
        <_>
          4 2 1 1 2.</_></rects>
      <tilted>0</tilted></_>
    <_>
      <rects>
        <_>
          4 1 4 2 -1.</_>
        <_>
          5 2 2 2 2.</_></rects>
      <tilted>1</tilted></_>
    <_>
      <rects>
        <_>
          4 1 4 3 -1.</_>
        <_>
          5 2 2 3 2.</_></rects>
      <tilted>1</tilted></_>
    <_>
      <rects>
        <_>
          4 1 4 7 -1.</_>
        <_>
          6 1 2 7 2.</_></rects>
      <tilted>0</tilted></_>
    <_>
      <rects>
        <_>
          4 2 1 2 -1.</_>
        <_>
          4 3 1 1 2.</_></rects>
      <tilted>0</tilted></_>
    <_>
      <rects>
        <_>
          4 2 3 4 -1.</_>
        <_>
          5 2 1 4 3.</_></rects>
      <tilted>0</tilted></_>
    <_>
      <rects>
        <_>
          4 2 3 3 -1.</_>
        <_>
          3 3 3 1 3.</_></rects>
      <tilted>1</tilted></_>
    <_>
      <rects>
        <_>
          4 4 3 1 -1.</_>
        <_>
          5 4 1 1 3.</_></rects>
      <tilted>0</tilted></_>
    <_>
      <rects>
        <_>
          4 4 2 2 -1.</_>
        <_>
          4 4 1 1 2.</_>
        <_>
          5 5 1 1 2.</_></rects>
      <tilted>0</tilted></_>
    <_>
      <rects>
        <_>
          4 4 1 4 -1.</_>
        <_>
          4 6 1 2 2.</_></rects>
      <tilted>0</tilted></_>
    <_>
      <rects>
        <_>
          4 5 1 2 -1.</_>
        <_>
          4 6 1 1 2.</_></rects>
      <tilted>0</tilted></_>
    <_>
      <rects>
        <_>
          4 5 3 3 -1.</_>
        <_>
          5 6 1 1 9.</_></rects>
      <tilted>0</tilted></_>
    <_>
      <rects>
        <_>
          4 6 1 2 -1.</_>
        <_>
          4 7 1 1 2.</_></rects>
      <tilted>0</tilted></_>
    <_>
      <rects>
        <_>
          4 7 4 1 -1.</_>
        <_>
          6 7 2 1 2.</_></rects>
      <tilted>0</tilted></_>
    <_>
      <rects>
        <_>
          5 0 3 1 -1.</_>
        <_>
          6 0 1 1 3.</_></rects>
      <tilted>0</tilted></_>
    <_>
      <rects>
        <_>
          5 0 2 2 -1.</_>
        <_>
          5 0 1 1 2.</_>
        <_>
          6 1 1 1 2.</_></rects>
      <tilted>0</tilted></_>
    <_>
      <rects>
        <_>
          5 0 3 3 -1.</_>
        <_>
          6 1 1 1 9.</_></rects>
      <tilted>0</tilted></_>
    <_>
      <rects>
        <_>
          5 0 2 3 -1.</_>
        <_>
          5 1 2 1 3.</_></rects>
      <tilted>0</tilted></_>
    <_>
      <rects>
        <_>
          5 0 3 2 -1.</_>
        <_>
          5 0 3 1 2.</_></rects>
      <tilted>1</tilted></_>
    <_>
      <rects>
        <_>
          5 1 2 2 -1.</_>
        <_>
          5 1 1 1 2.</_>
        <_>
          6 2 1 1 2.</_></rects>
      <tilted>0</tilted></_>
    <_>
      <rects>
        <_>
          5 1 2 2 -1.</_>
        <_>
          6 1 1 2 2.</_></rects>
      <tilted>0</tilted></_>
    <_>
      <rects>
        <_>
          5 2 1 2 -1.</_>
        <_>
          5 3 1 1 2.</_></rects>
      <tilted>0</tilted></_>
    <_>
      <rects>
        <_>
          5 2 2 2 -1.</_>
        <_>
          5 2 1 1 2.</_>
        <_>
          6 3 1 1 2.</_></rects>
      <tilted>0</tilted></_>
    <_>
      <rects>
        <_>
          5 2 3 3 -1.</_>
        <_>
          4 3 3 1 3.</_></rects>
      <tilted>1</tilted></_>
    <_>
      <rects>
        <_>
          5 3 2 1 -1.</_>
        <_>
          6 3 1 1 2.</_></rects>
      <tilted>0</tilted></_>
    <_>
      <rects>
        <_>
          5 3 1 3 -1.</_>
        <_>
          5 4 1 1 3.</_></rects>
      <tilted>0</tilted></_>
    <_>
      <rects>
        <_>
          5 3 2 2 -1.</_>
        <_>
          5 3 1 1 2.</_>
        <_>
          6 4 1 1 2.</_></rects>
      <tilted>0</tilted></_>
    <_>
      <rects>
        <_>
          5 3 3 1 -1.</_>
        <_>
          6 4 1 1 3.</_></rects>
      <tilted>1</tilted></_>
    <_>
      <rects>
        <_>
          5 5 1 2 -1.</_>
        <_>
          5 6 1 1 2.</_></rects>
      <tilted>0</tilted></_>
    <_>
      <rects>
        <_>
          5 5 2 2 -1.</_>
        <_>
          5 5 1 1 2.</_>
        <_>
          6 6 1 1 2.</_></rects>
      <tilted>0</tilted></_>
    <_>
      <rects>
        <_>
          5 5 2 2 -1.</_>
        <_>
          6 5 1 2 2.</_></rects>
      <tilted>0</tilted></_>
    <_>
      <rects>
        <_>
          5 6 1 2 -1.</_>
        <_>
          5 7 1 1 2.</_></rects>
      <tilted>0</tilted></_>
    <_>
      <rects>
        <_>
          5 6 2 2 -1.</_>
        <_>
          5 6 1 1 2.</_>
        <_>
          6 7 1 1 2.</_></rects>
      <tilted>0</tilted></_>
    <_>
      <rects>
        <_>
          6 0 1 3 -1.</_>
        <_>
          6 1 1 1 3.</_></rects>
      <tilted>0</tilted></_>
    <_>
      <rects>
        <_>
          6 0 2 1 -1.</_>
        <_>
          6 0 1 1 2.</_></rects>
      <tilted>1</tilted></_>
    <_>
      <rects>
        <_>
          6 0 2 3 -1.</_>
        <_>
          6 1 2 1 3.</_></rects>
      <tilted>0</tilted></_>
    <_>
      <rects>
        <_>
          6 1 2 2 -1.</_>
        <_>
          6 1 1 1 2.</_>
        <_>
          7 2 1 1 2.</_></rects>
      <tilted>0</tilted></_>
    <_>
      <rects>
        <_>
          6 1 2 3 -1.</_>
        <_>
          6 2 2 1 3.</_></rects>
      <tilted>0</tilted></_>
    <_>
      <rects>
        <_>
          6 2 2 2 -1.</_>
        <_>
          6 2 1 1 2.</_>
        <_>
          7 3 1 1 2.</_></rects>
      <tilted>0</tilted></_>
    <_>
      <rects>
        <_>
          6 4 2 2 -1.</_>
        <_>
          6 4 1 1 2.</_>
        <_>
          7 5 1 1 2.</_></rects>
      <tilted>0</tilted></_>
    <_>
      <rects>
        <_>
          6 5 2 2 -1.</_>
        <_>
          6 5 1 1 2.</_>
        <_>
          7 6 1 1 2.</_></rects>
      <tilted>0</tilted></_>
    <_>
      <rects>
        <_>
          7 0 1 4 -1.</_>
        <_>
          7 1 1 2 2.</_></rects>
      <tilted>0</tilted></_>
    <_>
      <rects>
        <_>
          7 0 1 6 -1.</_>
        <_>
          7 2 1 2 3.</_></rects>
      <tilted>0</tilted></_>
    <_>
      <rects>
        <_>
          7 0 1 6 -1.</_>
        <_>
          7 3 1 3 2.</_></rects>
      <tilted>0</tilted></_>
    <_>
      <rects>
        <_>
          7 0 1 8 -1.</_>
        <_>
          7 4 1 4 2.</_></rects>
      <tilted>0</tilted></_>
    <_>
      <rects>
        <_>
          7 1 1 3 -1.</_>
        <_>
          7 2 1 1 3.</_></rects>
      <tilted>0</tilted></_>
    <_>
      <rects>
        <_>
          7 1 1 6 -1.</_>
        <_>
          5 3 1 2 3.</_></rects>
      <tilted>1</tilted></_>
    <_>
      <rects>
        <_>
          7 2 1 4 -1.</_>
        <_>
          7 4 1 2 2.</_></rects>
      <tilted>0</tilted></_>
    <_>
      <rects>
        <_>
          7 5 1 3 -1.</_>
        <_>
          7 6 1 1 3.</_></rects>
      <tilted>0</tilted></_></features></cascade>
</opencv_storage>
